#ifndef CONSTANTS_H
#define CONSTANTS_H
constexpr double weights[2][6][64] = {{{ // black pawns
    -1.180, -1.300, -1.420, -1.540, -1.540, -1.420, -1.300, -1.180,
    -1.163, -1.277, -1.384, -1.466, -1.466, -1.384, -1.277, -1.163,
    -1.116, -1.216, -1.300, -1.353, -1.353, -1.300, -1.216, -1.116,
    -1.047, -1.131, -1.198, -1.235, -1.235, -1.198, -1.131, -1.047,
    -0.962, -1.034, -1.087, -1.116, -1.116, -1.087, -1.034, -0.962,
    -0.868, -0.929, -0.974, -0.997, -0.997, -0.974, -0.929, -0.868,
    -0.766, -0.820, -0.858, -0.878, -0.878, -0.858, -0.820, -0.766,
    -0.661, -0.708, -0.741, -0.758, -0.758, -0.741, -0.708, -0.661
}, { // black rooks
    -4.887, -4.903, -4.914, -4.919, -4.919, -4.914, -4.903, -4.887,
    -4.922, -4.940, -4.953, -4.959, -4.959, -4.953, -4.940, -4.922,
    -4.956, -4.976, -4.991, -4.999, -4.999, -4.991, -4.976, -4.956,
    -4.987, -5.011, -5.029, -5.039, -5.039, -5.029, -5.011, -4.987,
    -5.016, -5.044, -5.066, -5.078, -5.078, -5.066, -5.044, -5.016,
    -5.039, -5.072, -5.100, -5.118, -5.118, -5.100, -5.072, -5.039,
    -5.054, -5.092, -5.128, -5.155, -5.155, -5.128, -5.092, -5.054,
    -5.180, -5.180, -5.180, -5.180, -5.180, -5.180, -5.180, -5.180
}, { // black knights
    -2.706, -2.784, -2.843, -2.876, -2.876, -2.843, -2.784, -2.706, 
    -2.784, -2.876, -2.950, -2.994, -2.994, -2.950, -2.876, -2.784, 
    -2.843, -2.950, -3.045, -3.110, -3.110, -3.045, -2.950, -2.843, 
    -2.876, -2.994, -3.110, -3.215, -3.215, -3.110, -2.994, -2.876, 
    -2.876, -2.994, -3.110, -3.215, -3.215, -3.110, -2.994, -2.876, 
    -2.843, -2.950, -3.045, -3.110, -3.110, -3.045, -2.950, -2.843, 
    -2.784, -2.876, -2.950, -2.994, -2.994, -2.950, -2.876, -2.784, 
    -2.706, -2.784, -2.843, -2.876, -2.876, -2.843, -2.784, -2.706
}, { // black bishops
    -2.706, -2.784, -2.843, -2.876, -2.876, -2.843, -2.784, -2.706,
    -2.784, -2.876, -2.950, -2.994, -2.994, -2.950, -2.876, -2.784,
    -2.843, -2.950, -3.045, -3.110, -3.110, -3.045, -2.950, -2.843,
    -2.876, -2.994, -3.110, -3.215, -3.215, -3.110, -2.994, -2.876,
    -2.876, -2.994, -3.110, -3.215, -3.215, -3.110, -2.994, -2.876,
    -2.843, -2.950, -3.045, -3.110, -3.110, -3.045, -2.950, -2.843,
    -2.784, -2.876, -2.950, -2.994, -2.994, -2.950, -2.876, -2.784,
    -2.706, -2.784, -2.843, -2.876, -2.876, -2.843, -2.784, -2.706
}, { // black queens
    -8.787, -8.803, -8.814, -8.819, -8.819, -8.814, -8.803, -8.787,
    -8.822, -8.840, -8.853, -8.859, -8.859, -8.853, -8.840, -8.822,
    -8.856, -8.876, -8.891, -8.899, -8.899, -8.891, -8.876, -8.856,
    -8.887, -8.911, -8.929, -8.939, -8.939, -8.929, -8.911, -8.887,
    -8.916, -8.944, -8.966, -8.978, -8.978, -8.966, -8.944, -8.916,
    -8.939, -8.972, -9.000, -9.018, -9.018, -9.000, -8.972, -8.939,
    -8.954, -8.992, -9.028, -9.055, -9.055, -9.028, -8.992, -8.954,
    -8.960, -9.000, -9.040, -9.080, -9.080, -9.040, -9.000, -8.960
}, { // black king
    -996.000, -996.000, -996.000, -996.000, -996.000, -996.000, -996.000, -996.000,
    -996.000, -996.000, -996.000, -996.000, -996.000, -996.000, -996.000, -996.000,
    -996.000, -996.000, -996.000, -996.000, -996.000, -996.000, -996.000, -996.000,
    -996.000, -996.000, -996.000, -996.000, -996.000, -996.000, -996.000, -996.000,
    -997.000, -997.000, -997.000, -997.000, -997.000, -997.000, -997.000, -997.000,
    -997.000, -997.000, -997.000, -997.000, -997.000, -997.000, -997.000, -997.000,
    -998.000, -998.000, -998.000, -998.000, -998.000, -998.000, -998.000, -998.000,
    -1002.000, -1002.000, -1004.000, -1002.000, -1002.000, -1002.000, -1004.000, -1002.000
}}, {{ // white pawns
    0.661, 0.708, 0.741, 0.758, 0.758, 0.741, 0.708, 0.661,
    0.766, 0.820, 0.858, 0.878, 0.878, 0.858, 0.820, 0.766,
    0.868, 0.929, 0.974, 0.997, 0.997, 0.974, 0.929, 0.868,
    0.962, 1.034, 1.087, 1.116, 1.116, 1.087, 1.034, 0.962,
    1.047, 1.131, 1.198, 1.235, 1.235, 1.198, 1.131, 1.047,
    1.116, 1.216, 1.300, 1.353, 1.353, 1.300, 1.216, 1.116,
    1.163, 1.277, 1.384, 1.466, 1.466, 1.384, 1.277, 1.163,
    1.180, 1.300, 1.420, 1.540, 1.540, 1.420, 1.300, 1.180
}, { // white rooks
    5.180, 5.180, 5.180, 5.180, 5.180, 5.180, 5.180, 5.180,
    5.054, 5.092, 5.128, 5.155, 5.155, 5.128, 5.092, 5.054,
    5.039, 5.072, 5.100, 5.118, 5.118, 5.100, 5.072, 5.039,
    5.016, 5.044, 5.066, 5.078, 5.078, 5.066, 5.044, 5.016,
    4.987, 5.011, 5.029, 5.039, 5.039, 5.029, 5.011, 4.987,
    4.956, 4.976, 4.991, 4.999, 4.999, 4.991, 4.976, 4.956,
    4.922, 4.940, 4.953, 4.959, 4.959, 4.953, 4.940, 4.922,
    4.887, 4.903, 4.914, 4.919, 4.919, 4.914, 4.903, 4.887
}, { // white knights
    2.706, 2.784, 2.843, 2.876, 2.876, 2.843, 2.784, 2.706, 
    2.784, 2.876, 2.950, 2.994, 2.994, 2.950, 2.876, 2.784, 
    2.843, 2.950, 3.045, 3.110, 3.110, 3.045, 2.950, 2.843, 
    2.876, 2.994, 3.110, 3.215, 3.215, 3.110, 2.994, 2.876, 
    2.876, 2.994, 3.110, 3.215, 3.215, 3.110, 2.994, 2.876, 
    2.843, 2.950, 3.045, 3.110, 3.110, 3.045, 2.950, 2.843, 
    2.784, 2.876, 2.950, 2.994, 2.994, 2.950, 2.876, 2.784, 
    2.706, 2.784, 2.843, 2.876, 2.876, 2.843, 2.784, 2.706
}, { // white bishops 
    2.706, 2.784, 2.843, 2.876, 2.876, 2.843, 2.784, 2.706, 
    2.784, 2.876, 2.950, 2.994, 2.994, 2.950, 2.876, 2.784, 
    2.843, 2.950, 3.045, 3.110, 3.110, 3.045, 2.950, 2.843, 
    2.876, 2.994, 3.110, 3.215, 3.215, 3.110, 2.994, 2.876, 
    2.876, 2.994, 3.110, 3.215, 3.215, 3.110, 2.994, 2.876, 
    2.843, 2.950, 3.045, 3.110, 3.110, 3.045, 2.950, 2.843, 
    2.784, 2.876, 2.950, 2.994, 2.994, 2.950, 2.876, 2.784, 
    2.706, 2.784, 2.843, 2.876, 2.876, 2.843, 2.784, 2.706
}, { // white queens
    8.960, 9.000, 9.040, 9.080, 9.080, 9.040, 9.000, 8.960,
    8.954, 8.992, 9.028, 9.055, 9.055, 9.028, 8.992, 8.954,
    8.939, 8.972, 9.000, 9.018, 9.018, 9.000, 8.972, 8.939,
    8.916, 8.944, 8.966, 8.978, 8.978, 8.966, 8.944, 8.916,
    8.887, 8.911, 8.929, 8.939, 8.939, 8.929, 8.911, 8.887,
    8.856, 8.876, 8.891, 8.899, 8.899, 8.891, 8.876, 8.856,
    8.822, 8.840, 8.853, 8.859, 8.859, 8.853, 8.840, 8.822,
    8.787, 8.803, 8.814, 8.819, 8.819, 8.814, 8.803, 8.787
}, { // white king
    1002.000, 1002.000, 1004.000, 1002.000, 1002.000, 1002.000, 1004.000, 1002.000,
    998.000, 998.000, 998.000, 998.000, 998.000, 998.000, 998.000, 998.000,
    997.000, 997.000, 997.000, 997.000, 997.000, 997.000, 997.000, 997.000,
    997.000, 997.000, 997.000, 997.000, 997.000, 997.000, 997.000, 997.000,
    996.000, 996.000, 996.000, 996.000, 996.000, 996.000, 996.000, 996.000,
    996.000, 996.000, 996.000, 996.000, 996.000, 996.000, 996.000, 996.000,
    996.000, 996.000, 996.000, 996.000, 996.000, 996.000, 996.000, 996.000,
    996.000, 996.000, 996.000, 996.000, 996.000, 996.000, 996.000, 996.000
}}};

// File masks for out of bounds
constexpr uint64_t FILE_A = 0b1000000010000000100000001000000010000000100000001000000010000000;
constexpr uint64_t FILE_H = 0b0000000100000001000000010000000100000001000000010000000100000001;
constexpr uint64_t FILES_AB = 0b1100000011000000110000001100000011000000110000001100000011000000;
constexpr uint64_t FILES_GH = 0b0000001100000011000000110000001100000011000000110000001100000011;

// Rank masks
constexpr uint64_t END_RANK[2] = {
    0b1111111100000000000000000000000000000000000000000000000000000000,
    0b0000000000000000000000000000000000000000000000000000000011111111};

// Knight mask
constexpr uint64_t KNIGHT_MASK = 0b0101000010001000000000001000100001010000000000000000000000000000;
constexpr int KNIGHT_MASK_CENTER = 18;

// castling masks
constexpr uint64_t h1 = position_to_bitboard("h1");
constexpr uint64_t a1 = position_to_bitboard("a1");
constexpr uint64_t h8 = position_to_bitboard("h8");
constexpr uint64_t a8 = position_to_bitboard("a8");
constexpr uint64_t e1 = position_to_bitboard("e1");
constexpr uint64_t e8 = position_to_bitboard("e8");

// Castling masks
constexpr uint64_t CASTLE_BETWEEN[2][2] = {
    // first slot: side (0 for black and 1 for white); second slot: short 0 or long 1
    {
        0b0000000000000000000000000000000000000000000000000000000000000110,
        0b0000000000000000000000000000000000000000000000000000000001110000
    },
    {
        0b0000011000000000000000000000000000000000000000000000000000000000,
        0b0111000000000000000000000000000000000000000000000000000000000000
    }
};
constexpr uint64_t CASTLE_MOVEMENT[2][2][2] = {
    // [black/white][short/long][king movement/rook movement]
    {
        { // black short castle
            0b0000000000000000000000000000000000000000000000000000000000001010, // king movement
            0b0000000000000000000000000000000000000000000000000000000000000101  // rook movement
        },
        { // black long castle
            0b0000000000000000000000000000000000000000000000000000000000101000,
            0b0000000000000000000000000000000000000000000000000000000010010000
        }
    }, {
        { // white short castle
            0b0000101000000000000000000000000000000000000000000000000000000000,
            0b0000010100000000000000000000000000000000000000000000000000000000
        },
        { // white long castle
            0b0010100000000000000000000000000000000000000000000000000000000000,
            0b1001000000000000000000000000000000000000000000000000000000000000
        }
    }
};
#endif
